digraph Tree {
node [shape=box, style="filled, rounded", color="black", fontname="helvetica"] ;
edge [fontname="helvetica"] ;
0 [label="Tool Dia. (mm) <= 0.423\nsquared_error = 3.283\nsamples = 14\nvalue = [[0.144]\n[4.951]]", fillcolor="#fcf0e7"] ;
1 [label="squared_error = 1.786\nsamples = 9\nvalue = [[0.155]\n[3.929]]", fillcolor="#e58139"] ;
0 -> 1 [labeldistance=2.5, labelangle=45, headlabel="True"] ;
2 [label="squared_error = 3.488\nsamples = 5\nvalue = [[0.128]\n[6.611]]", fillcolor="#ffffff"] ;
0 -> 2 [labeldistance=2.5, labelangle=-45, headlabel="False"] ;
}