digraph Tree {
node [shape=box, style="filled, rounded", color="black", fontname="helvetica"] ;
edge [fontname="helvetica"] ;
0 [label="Wf <= 0.756\nsquared_error = 196587.757\nsamples = 55\nvalue = [[4002.907]\n[14.419]]", fillcolor="#ffffff"] ;
1 [label="Delta W <= -1.466\nsquared_error = 147797.421\nsamples = 37\nvalue = [[4218.182]\n[14.818]]", fillcolor="#f9e0ce"] ;
0 -> 1 [labeldistance=2.5, labelangle=45, headlabel="True"] ;
3 [label="squared_error = 6944.444\nsamples = 2\nvalue = [[3083.333]\n[20.0]]", fillcolor="#e68540"] ;
1 -> 3 ;
4 [label="delta Weight <= 1.107\nsquared_error = 116629.026\nsamples = 35\nvalue = [[4283.654]\n[14.519]]", fillcolor="#f4ccae"] ;
1 -> 4 ;
9 [label="Delta L <= 1.594\nsquared_error = 103106.492\nsamples = 28\nvalue = [[4416.667]\n[14.487]]", fillcolor="#f3c3a1"] ;
4 -> 9 ;
11 [label="MRR actual <= -0.183\nsquared_error = 78717.729\nsamples = 27\nvalue = [[4453.947]\n[14.474]]", fillcolor="#efb388"] ;
9 -> 11 ;
15 [label="Wi <= 0.507\nsquared_error = 51698.765\nsamples = 6\nvalue = [[4722.222]\n[10.556]]", fillcolor="#eca26d"] ;
11 -> 15 ;
23 [label="squared_error = 6946.181\nsamples = 4\nvalue = [[4916.667]\n[10.833]]", fillcolor="#e68540"] ;
15 -> 23 ;
24 [label="squared_error = 27777.778\nsamples = 2\nvalue = [[4333.333]\n[10.0]]", fillcolor="#e99355"] ;
15 -> 24 ;
16 [label="MRR actual <= 0.994\nsquared_error = 72465.904\nsamples = 21\nvalue = [[4370.69]\n[15.69]]", fillcolor="#efaf82"] ;
11 -> 16 ;
17 [label="MRR actual <= 0.252\nsquared_error = 68758.094\nsamples = 14\nvalue = [[4250.0]\n[14.75]]", fillcolor="#eead7e"] ;
16 -> 17 ;
19 [label="Wf <= -0.587\nsquared_error = 40839.444\nsamples = 10\nvalue = [[4400.0]\n[13.333]]", fillcolor="#ea9b62"] ;
17 -> 19 ;
25 [label="delta Weight <= -0.115\nsquared_error = 17505.625\nsamples = 6\nvalue = [[4550.0]\n[12.5]]", fillcolor="#e78c4b"] ;
19 -> 25 ;
37 [label="squared_error = 0.0\nsamples = 1\nvalue = [[5000.0]\n[20.0]]", fillcolor="#e58139"] ;
25 -> 37 ;
38 [label="squared_error = 6947.222\nsamples = 5\nvalue = [[4500.0]\n[11.667]]", fillcolor="#e68540"] ;
25 -> 38 ;
26 [label="squared_error = 20005.0\nsamples = 4\nvalue = [[4100.0]\n[15.0]]", fillcolor="#e88e4d"] ;
19 -> 26 ;
20 [label="squared_error = 17502.0\nsamples = 4\nvalue = [[3800.0]\n[19.0]]", fillcolor="#e78c4b"] ;
17 -> 20 ;
18 [label="Delta W <= 0.583\nsquared_error = 28552.469\nsamples = 7\nvalue = [[4638.889]\n[17.778]]", fillcolor="#e99356"] ;
16 -> 18 ;
29 [label="squared_error = 10419.444\nsamples = 5\nvalue = [[4500.0]\n[18.333]]", fillcolor="#e68843"] ;
18 -> 29 ;
30 [label="squared_error = 6947.222\nsamples = 2\nvalue = [[4916.667]\n[16.667]]", fillcolor="#e68540"] ;
18 -> 30 ;
12 [label="squared_error = 0.0\nsamples = 1\nvalue = [[3000.0]\n[15.0]]", fillcolor="#e58139"] ;
9 -> 12 ;
10 [label="Delta L <= 0.448\nsquared_error = 51042.16\nsamples = 7\nvalue = [[3884.615]\n[14.615]]", fillcolor="#eca26c"] ;
4 -> 10 ;
13 [label="squared_error = 7329.688\nsamples = 3\nvalue = [[4093.75]\n[13.75]]", fillcolor="#e68640"] ;
10 -> 13 ;
14 [label="Delta L <= 2.594\nsquared_error = 30007.0\nsamples = 4\nvalue = [[3550.0]\n[16.0]]", fillcolor="#e99457"] ;
10 -> 14 ;
33 [label="squared_error = 5865.625\nsamples = 3\nvalue = [[3437.5]\n[15.0]]", fillcolor="#e6853f"] ;
14 -> 33 ;
34 [label="squared_error = 0.0\nsamples = 1\nvalue = [[4000.0]\n[20.0]]", fillcolor="#e58139"] ;
14 -> 34 ;
2 [label="MRR ideal <= -1.013\nsquared_error = 169101.119\nsamples = 18\nvalue = [[3620.968]\n[13.71]]", fillcolor="#fbede3"] ;
0 -> 2 [labeldistance=2.5, labelangle=-45, headlabel="False"] ;
5 [label="Wf <= 1.118\nsquared_error = 190963.322\nsamples = 9\nvalue = [[3911.765]\n[12.647]]", fillcolor="#fefbf9"] ;
2 -> 5 ;
7 [label="Delta L <= 0.136\nsquared_error = 27780.903\nsamples = 3\nvalue = [[4666.667]\n[12.5]]", fillcolor="#e99355"] ;
5 -> 7 ;
31 [label="squared_error = 0.0\nsamples = 1\nvalue = [[5000.0]\n[15.0]]", fillcolor="#e58139"] ;
7 -> 31 ;
32 [label="squared_error = 2.344\nsamples = 2\nvalue = [[4500.0]\n[11.25]]", fillcolor="#e58139"] ;
7 -> 32 ;
8 [label="Delta L <= -1.067\nsquared_error = 39775.826\nsamples = 6\nvalue = [[3500.0]\n[12.727]]", fillcolor="#ea9a61"] ;
5 -> 8 ;
21 [label="squared_error = 6947.222\nsamples = 2\nvalue = [[3083.333]\n[13.333]]", fillcolor="#e68540"] ;
8 -> 21 ;
22 [label="squared_error = 7327.344\nsamples = 4\nvalue = [[3656.25]\n[12.5]]", fillcolor="#e68640"] ;
8 -> 22 ;
6 [label="Delta W <= 1.002\nsquared_error = 28867.347\nsamples = 9\nvalue = [[3267.857]\n[15.0]]", fillcolor="#e99456"] ;
2 -> 6 ;
27 [label="MRR actual <= -0.588\nsquared_error = 20322.0\nsamples = 7\nvalue = [[3375.0]\n[16.0]]", fillcolor="#e88e4d"] ;
6 -> 27 ;
35 [label="squared_error = 10429.167\nsamples = 4\nvalue = [[3500.0]\n[15.0]]", fillcolor="#e68844"] ;
27 -> 35 ;
36 [label="squared_error = 5862.5\nsamples = 3\nvalue = [[3187.5]\n[17.5]]", fillcolor="#e6853f"] ;
27 -> 36 ;
28 [label="squared_error = 3.125\nsamples = 2\nvalue = [[3000.0]\n[12.5]]", fillcolor="#e58139"] ;
6 -> 28 ;
}