digraph Tree {
node [shape=box, style="filled, rounded", color="black", fontname="helvetica"] ;
edge [fontname="helvetica"] ;
0 [label="MRR actual <= 1.004\nsquared_error = 186190.143\nsamples = 56\nvalue = [[4063.953]\n[14.884]]", fillcolor="#ffffff"] ;
1 [label="Delta W <= -0.915\nsquared_error = 177368.347\nsamples = 44\nvalue = [[3902.344]\n[13.75]]", fillcolor="#fef9f6"] ;
0 -> 1 [labeldistance=2.5, labelangle=45, headlabel="True"] ;
3 [label="Wi <= -1.224\nsquared_error = 79087.819\nsamples = 11\nvalue = [[3392.857]\n[14.643]]", fillcolor="#f0b78d"] ;
1 -> 3 ;
17 [label="Delta W <= -1.278\nsquared_error = 62502.778\nsamples = 3\nvalue = [[4000.0]\n[11.667]]", fillcolor="#eeab7b"] ;
3 -> 17 ;
25 [label="squared_error = 0.0\nsamples = 1\nvalue = [[4500.0]\n[10.0]]", fillcolor="#e58139"] ;
17 -> 25 ;
26 [label="squared_error = 3.125\nsamples = 2\nvalue = [[3750.0]\n[12.5]]", fillcolor="#e58139"] ;
17 -> 26 ;
18 [label="Wi <= -1.112\nsquared_error = 19633.678\nsamples = 8\nvalue = [[3227.273]\n[15.455]]", fillcolor="#e88e4e"] ;
3 -> 18 ;
29 [label="squared_error = 2.778\nsamples = 2\nvalue = [[3500.0]\n[16.667]]", fillcolor="#e58139"] ;
18 -> 29 ;
30 [label="squared_error = 7818.75\nsamples = 6\nvalue = [[3125.0]\n[15.0]]", fillcolor="#e68641"] ;
18 -> 30 ;
4 [label="Wf <= -0.59\nsquared_error = 158370.625\nsamples = 33\nvalue = [[4045.0]\n[13.5]]", fillcolor="#fbece1"] ;
1 -> 4 ;
5 [label="Delta W <= 0.015\nsquared_error = 20839.236\nsamples = 5\nvalue = [[4750.0]\n[15.833]]", fillcolor="#e88f4f"] ;
4 -> 5 ;
35 [label="squared_error = 12.5\nsamples = 2\nvalue = [[5000.0]\n[15.0]]", fillcolor="#e58139"] ;
5 -> 35 ;
36 [label="squared_error = 7814.844\nsamples = 3\nvalue = [[4625.0]\n[16.25]]", fillcolor="#e68641"] ;
5 -> 36 ;
6 [label="Delta L <= -0.812\nsquared_error = 138615.315\nsamples = 28\nvalue = [[3948.864]\n[13.182]]", fillcolor="#f8dfcc"] ;
4 -> 6 ;
7 [label="Delta W <= 0.134\nsquared_error = 19780.166\nsamples = 9\nvalue = [[3571.429]\n[15.357]]", fillcolor="#e88e4e"] ;
6 -> 7 ;
23 [label="squared_error = 7662.755\nsamples = 5\nvalue = [[3392.857]\n[13.571]]", fillcolor="#e68641"] ;
7 -> 23 ;
24 [label="squared_error = 6.633\nsamples = 4\nvalue = [[3750.0]\n[17.143]]", fillcolor="#e58139"] ;
7 -> 24 ;
8 [label="delta Weight <= -0.512\nsquared_error = 145318.069\nsamples = 19\nvalue = [[4125.0]\n[12.167]]", fillcolor="#f9e3d4"] ;
6 -> 8 ;
9 [label="delta Weight <= -1.148\nsquared_error = 93756.25\nsamples = 8\nvalue = [[4375.0]\n[12.5]]", fillcolor="#f2c09d"] ;
8 -> 9 ;
13 [label="squared_error = 12761.735\nsamples = 3\nvalue = [[3964.286]\n[12.857]]", fillcolor="#e78a47"] ;
9 -> 13 ;
14 [label="MRR actual <= -1.227\nsquared_error = 40129.321\nsamples = 5\nvalue = [[4694.444]\n[12.222]]", fillcolor="#eb9c64"] ;
9 -> 14 ;
21 [label="squared_error = 3.125\nsamples = 2\nvalue = [[5000.0]\n[12.5]]", fillcolor="#e58139"] ;
14 -> 21 ;
22 [label="squared_error = 5008.0\nsamples = 3\nvalue = [[4450.0]\n[12.0]]", fillcolor="#e6843e"] ;
14 -> 22 ;
10 [label="Wf <= 0.756\nsquared_error = 127715.115\nsamples = 11\nvalue = [[3839.286]\n[11.786]]", fillcolor="#f7d7c1"] ;
8 -> 10 ;
11 [label="Delta W <= -0.796\nsquared_error = 63277.469\nsamples = 8\nvalue = [[4138.889]\n[12.222]]", fillcolor="#eeac7c"] ;
10 -> 11 ;
19 [label="squared_error = 0.0\nsamples = 1\nvalue = [[5000.0]\n[10.0]]", fillcolor="#e58139"] ;
11 -> 19 ;
20 [label="Delta W <= 0.126\nsquared_error = 19049.219\nsamples = 7\nvalue = [[4031.25]\n[12.5]]", fillcolor="#e88e4d"] ;
11 -> 20 ;
33 [label="squared_error = 12.5\nsamples = 2\nvalue = [[3750.0]\n[15.0]]", fillcolor="#e58139"] ;
20 -> 33 ;
34 [label="squared_error = 7815.278\nsamples = 5\nvalue = [[4125.0]\n[11.667]]", fillcolor="#e68641"] ;
20 -> 34 ;
12 [label="squared_error = 17502.0\nsamples = 3\nvalue = [[3300.0]\n[11.0]]", fillcolor="#e78d4c"] ;
10 -> 12 ;
2 [label="delta Weight <= 1.095\nsquared_error = 63342.252\nsamples = 12\nvalue = [[4534.091]\n[18.182]]", fillcolor="#eeac7c"] ;
0 -> 2 [labeldistance=2.5, labelangle=-45, headlabel="False"] ;
15 [label="delta Weight <= 0.665\nsquared_error = 24068.144\nsamples = 9\nvalue = [[4644.737]\n[17.895]]", fillcolor="#e89153"] ;
2 -> 15 ;
27 [label="MRR actual <= 1.128\nsquared_error = 15627.344\nsamples = 6\nvalue = [[4750.0]\n[18.75]]", fillcolor="#e78c4a"] ;
15 -> 27 ;
31 [label="squared_error = 0.0\nsamples = 1\nvalue = [[4500.0]\n[20.0]]", fillcolor="#e58139"] ;
27 -> 31 ;
32 [label="squared_error = 6947.222\nsamples = 5\nvalue = [[4833.333]\n[18.333]]", fillcolor="#e68640"] ;
27 -> 32 ;
28 [label="squared_error = 12757.653\nsamples = 3\nvalue = [[4464.286]\n[16.429]]", fillcolor="#e78a47"] ;
15 -> 28 ;
16 [label="Wf <= -0.312\nsquared_error = 27777.778\nsamples = 3\nvalue = [[3833.333]\n[20.0]]", fillcolor="#e99457"] ;
2 -> 16 ;
37 [label="squared_error = 0.0\nsamples = 2\nvalue = [[4000.0]\n[20.0]]", fillcolor="#e58139"] ;
16 -> 37 ;
38 [label="squared_error = 0.0\nsamples = 1\nvalue = [[3500.0]\n[20.0]]", fillcolor="#e58139"] ;
16 -> 38 ;
}