digraph Tree {
node [shape=box, style="filled, rounded", color="black", fontname="helvetica"] ;
edge [fontname="helvetica"] ;
0 [label="Wf <= 1.161\nsquared_error = 237048.634\nsamples = 56\nvalue = [[4095.93]\n[14.651]]", fillcolor="#ffffff"] ;
1 [label="Delta W <= -1.466\nsquared_error = 212943.848\nsamples = 50\nvalue = [[4198.052]\n[14.74]]", fillcolor="#fcf2eb"] ;
0 -> 1 [labeldistance=2.5, labelangle=45, headlabel="True"] ;
3 [label="squared_error = 0.0\nsamples = 1\nvalue = [[3000.0]\n[20.0]]", fillcolor="#e58139"] ;
1 -> 3 ;
4 [label="Delta L <= -0.128\nsquared_error = 191302.121\nsamples = 49\nvalue = [[4246.622]\n[14.527]]", fillcolor="#fae7d9"] ;
1 -> 4 ;
5 [label="Wi <= 1.072\nsquared_error = 123803.466\nsamples = 19\nvalue = [[4477.273]\n[14.848]]", fillcolor="#f3c3a0"] ;
4 -> 5 ;
13 [label="MRR actual <= -0.216\nsquared_error = 107092.069\nsamples = 17\nvalue = [[4550.0]\n[15.167]]", fillcolor="#f1ba92"] ;
5 -> 13 ;
15 [label="Delta W <= 0.333\nsquared_error = 26630.178\nsamples = 5\nvalue = [[4846.154]\n[11.923]]", fillcolor="#e88f4f"] ;
13 -> 15 ;
35 [label="squared_error = 2.778\nsamples = 3\nvalue = [[5000.0]\n[11.667]]", fillcolor="#e58139"] ;
15 -> 35 ;
36 [label="delta Weight <= -0.541\nsquared_error = 30615.306\nsamples = 2\nvalue = [[4714.286]\n[12.143]]", fillcolor="#e89153"] ;
15 -> 36 ;
37 [label="squared_error = 0.0\nsamples = 1\nvalue = [[5000.0]\n[15.0]]", fillcolor="#e58139"] ;
36 -> 37 ;
38 [label="squared_error = 0.0\nsamples = 1\nvalue = [[4500.0]\n[10.0]]", fillcolor="#e58139"] ;
36 -> 38 ;
16 [label="MRR actual <= 0.028\nsquared_error = 109435.121\nsamples = 12\nvalue = [[4323.529]\n[17.647]]", fillcolor="#f1bb94"] ;
13 -> 16 ;
17 [label="squared_error = 20836.111\nsamples = 3\nvalue = [[3500.0]\n[16.667]]", fillcolor="#e78c4a"] ;
16 -> 17 ;
18 [label="MRR actual <= 1.419\nsquared_error = 40185.204\nsamples = 9\nvalue = [[4500.0]\n[17.857]]", fillcolor="#e9965b"] ;
16 -> 18 ;
23 [label="delta Weight <= -0.266\nsquared_error = 22576.649\nsamples = 7\nvalue = [[4583.333]\n[17.917]]", fillcolor="#e78d4c"] ;
18 -> 23 ;
31 [label="squared_error = 0.0\nsamples = 1\nvalue = [[4250.0]\n[20.0]]", fillcolor="#e58139"] ;
23 -> 31 ;
32 [label="squared_error = 13758.125\nsamples = 6\nvalue = [[4650.0]\n[17.5]]", fillcolor="#e78844"] ;
23 -> 32 ;
24 [label="squared_error = 3.125\nsamples = 2\nvalue = [[4000.0]\n[17.5]]", fillcolor="#e58139"] ;
18 -> 24 ;
14 [label="squared_error = 2.778\nsamples = 2\nvalue = [[3750.0]\n[11.667]]", fillcolor="#e58139"] ;
5 -> 14 ;
6 [label="MRR actual <= 0.111\nsquared_error = 206988.281\nsamples = 30\nvalue = [[4060.976]\n[14.268]]", fillcolor="#fcefe6"] ;
4 -> 6 ;
7 [label="Tool Dia. (mm) <= -0.707\nsquared_error = 163958.726\nsamples = 15\nvalue = [[3684.211]\n[12.632]]", fillcolor="#f7d8c2"] ;
6 -> 7 ;
9 [label="squared_error = 21690.306\nsamples = 6\nvalue = [[4285.714]\n[12.857]]", fillcolor="#e78d4b"] ;
7 -> 9 ;
10 [label="Delta W <= 1.442\nsquared_error = 79864.236\nsamples = 9\nvalue = [[3333.333]\n[12.5]]", fillcolor="#eeab7c"] ;
7 -> 10 ;
21 [label="Delta L <= 0.188\nsquared_error = 19065.625\nsamples = 7\nvalue = [[3175.0]\n[12.5]]", fillcolor="#e78b49"] ;
10 -> 21 ;
33 [label="squared_error = 0.0\nsamples = 1\nvalue = [[3500.0]\n[10.0]]", fillcolor="#e58139"] ;
21 -> 33 ;
34 [label="squared_error = 7327.148\nsamples = 6\nvalue = [[3093.75]\n[13.125]]", fillcolor="#e6853f"] ;
21 -> 34 ;
22 [label="squared_error = 7815.625\nsamples = 2\nvalue = [[4125.0]\n[12.5]]", fillcolor="#e68540"] ;
10 -> 22 ;
8 [label="delta Weight <= 0.87\nsquared_error = 129911.906\nsamples = 15\nvalue = [[4386.364]\n[15.682]]", fillcolor="#f3c6a6"] ;
6 -> 8 ;
11 [label="Wi <= 0.561\nsquared_error = 79084.184\nsamples = 8\nvalue = [[4642.857]\n[16.429]]", fillcolor="#eeab7b"] ;
8 -> 11 ;
19 [label="squared_error = 11883.058\nsamples = 6\nvalue = [[4818.182]\n[16.818]]", fillcolor="#e68743"] ;
11 -> 19 ;
20 [label="Wf <= 0.699\nsquared_error = 62500.0\nsamples = 2\nvalue = [[4000.0]\n[15.0]]", fillcolor="#eca26d"] ;
11 -> 20 ;
25 [label="squared_error = 0.0\nsamples = 1\nvalue = [[4250.0]\n[15.0]]", fillcolor="#e58139"] ;
20 -> 25 ;
26 [label="squared_error = 0.0\nsamples = 1\nvalue = [[3500.0]\n[15.0]]", fillcolor="#e58139"] ;
20 -> 26 ;
12 [label="Delta W <= 1.242\nsquared_error = 60554.492\nsamples = 7\nvalue = [[3937.5]\n[14.375]]", fillcolor="#eca16c"] ;
8 -> 12 ;
27 [label="Wi <= -1.515\nsquared_error = 43374.49\nsamples = 6\nvalue = [[3857.143]\n[15.0]]", fillcolor="#ea985d"] ;
12 -> 27 ;
29 [label="squared_error = 0.0\nsamples = 1\nvalue = [[4500.0]\n[15.0]]", fillcolor="#e58139"] ;
27 -> 29 ;
30 [label="squared_error = 10425.0\nsamples = 5\nvalue = [[3750.0]\n[15.0]]", fillcolor="#e68742"] ;
27 -> 30 ;
28 [label="squared_error = 0.0\nsamples = 1\nvalue = [[4500.0]\n[10.0]]", fillcolor="#e58139"] ;
12 -> 28 ;
2 [label="squared_error = 16983.025\nsamples = 6\nvalue = [[3222.222]\n[13.889]]", fillcolor="#e78a47"] ;
0 -> 2 [labeldistance=2.5, labelangle=-45, headlabel="False"] ;
}